encog,BasicNetwork,java,3.4.0,1,1587040923466
[BASIC]
[BASIC:PARAMS]
[BASIC:NETWORK]
beginTraining=0
connectionLimit=0
contextTargetOffset=0,0,0
contextTargetSize=0,0,0
endTraining=2
hasContext=f
inputCount=4
layerCounts=3,31,5
layerFeedCounts=3,30,4
layerContextCount=0,0,0
layerIndex=0,3,34
output=0,0,0,0,0,0,0,0,0,0,0,0,0,0,0,0,0,0,0,0,0,0,0,0,0,0,0,0,0,0,0,0,0,1,0,0,0,0,1
outputCount=3
weightIndex=0,93,243
weights=2.2792267606,0.8316765179,0.3312000354,7.4359067804,1.0688670764,0.3980672549,0.4156279404,-0.3423172802,396.8513086993,2.6694024219,1.7956648587,1.4764107643,-0.3638231786,-0.1146996445,-0.6482871153,10.4478479542,0.8800394405,1.0782077477,5.2546052147,-1.5963013219,-0.5861182421,1.9155166919,5.6518547219,-0.4847689839,14.808987637,2.6333174271,2.3855606939,0.6349123365,-15.9320910558,-0.2929952665,1.1507790013,-4.4723668639,0.2480122174,0.3814990421,-7.9258609063,-1.3827232305,-1.0635818383,-0.6061536909,-0.3611507773,-62.18913048,-1.7080600194,-1.6991714534,-2.5847832169,0.55548442,-0.3679315468,0.9740739497,-3.3137363198,0.2723941947,0.3608000314,-2.4353414717,-0.2318031205,-0.338010175,-2.7751048773,-5.8885797494,-0.3936375621,-17.2746596775,-2.3349087039,-2.3408440537,-0.1208550221,-1.642202889,0.2562746547,-1.2320616426,-3.033454474,-2.5865389533,-1.0165052089,-12.9011894354,-48.05856123,-0.6060912284,0.0310208415,0.7630811092,-22.8165655659,-12.2835418514,-2.3759571376,-0.692376142,-1.0782017779,-0.1688163869,-0.1398030171,-10.4664726373,-0.4761295647,-0.5388967338,-1.6126811972,0.5515423277,-2.1563216403,-3.6899135579,-3.6119324547,-1.040762423,-10.0776377057,-2.3056407919,-0.6117732354,0.7500527277,3.4912452399,0.8432831077,-2.0167203348,-1.0186157636,0.5042826838,-38.6343318516,-808.3129217913,86.3484167076,-339.2697950018,-19.8584483506,-638.3943638623,-79.4652589133,6.2767251157,-0.399976771,-0.5930393406,0.7522303031,27.2105952371,-17.3863200805,-355.6872448032,-0.1278595536,-709.2670240811,-239.9013277751,12.2932247949,-638.9566203751,-14.789773928,-4.9804672079,0.0285407125,0.9250824206,0.6663826376,0.9906750964,-6.8168312684,-228.5071046366,10.9753846916,389.5147521428,310.0711265387,-8.2429311484,-14.787677636,0.7606240841,514.1714211817,72.0757880483,28.2592103725,6.0270453119,1.489883752,-894.3004170117,-124.4873079481,-158.3532052677,-3.7653893884,0.3293300242,-929.8159457932,-42.4804587428,-807.8879322078,-89.9566988434,0.9882487238,-640.9790779383,-0.9317597356,-707.5557947632,-239.3111794284,4.935783606,0.4786537251,14.2401335559,-1.4154302375,-809.3922903773,90.7849476397,-0.126523228,-2.57624648,0.5173636967,0.0308861403,-0.7228250841,7.4343759022,1.6049318172,0.440060339,-0.656608112,0.8195000361,1.5033908776,-2.1232323997,5.1303016427,46.337362046,-10.1942723777,-559.8520344312,-2.866836577,-54.9000114149,-0.3043520111,4.0503707331,0.880777597,-0.3261781605,-0.4651264089,1.6009540247,0.0823482988,-2.2765493202,0.8421866529,0.7257073065,0.6078375358,-0.02844965,-40.9718536035,0.7789849246,-314.8943517652,-515.765507623,0.0489375382,1094.4414361488,17.4194138696,805.3627182002,6.7486437914,-2.0638784947,-0.4304125569,-24.1937045789,0.4429200651,5.2835472781,-1.2704059473,-642.6911772568,-15.3708382698,-993.962039402,-83.2639387456,1.9946322763,-1.7197979251,-0.3863645777,-111.6580188669,-808.556296167,131.9933864109,-0.1246060857,-0.5745867227,-0.0401930376,0.0209698373,-0.9514413518,-14.0861683649,-0.5853436287,-318.1534210991,-516.063000272,16.2643495712,-67.9011666332,-0.5904518179,-418.0112189104,-807.76967979,34.1496976332,0.3085938297,1.5756986994,-14.0217862308,-512.9641007436,0.4570628753,0.5669602804,5.2799734356,0.2489881896,-43.6531629236,0.5085919324,514.8789053644,99.8201596771,78.9746602255,-179.7438364812,0.0357491808,849.9475877703,11.4415346263,159.453711968,9.7195337886,-4.9269227854
biasActivation=0,1,1
[BASIC:ACTIVATION]
"org.encog.engine.network.activation.ActivationSigmoid"
"org.encog.engine.network.activation.ActivationSigmoid"
"org.encog.engine.network.activation.ActivationLinear"
